digraph Tree {
node [shape=box, style="filled, rounded", color="black", fontname="helvetica"] ;
edge [fontname="helvetica"] ;
0 [label="petal length (cm) <= 2.6\ngini = 0.66\nsamples = 94\nvalue = [45, 49, 56]\nclass = virginica", fillcolor="#f6f1fd"] ;
1 [label="gini = 0.0\nsamples = 29\nvalue = [45, 0, 0]\nclass = setosa", fillcolor="#e58139"] ;
0 -> 1 [labeldistance=2.5, labelangle=45, headlabel="True"] ;
2 [label="petal width (cm) <= 1.75\ngini = 0.5\nsamples = 65\nvalue = [0, 49, 56]\nclass = virginica", fillcolor="#efe6fc"] ;
0 -> 2 [labeldistance=2.5, labelangle=-45, headlabel="False"] ;
3 [label="sepal length (cm) <= 7.1\ngini = 0.08\nsamples = 36\nvalue = [0, 48, 2]\nclass = versicolor", fillcolor="#41e686"] ;
2 -> 3 ;
4 [label="sepal length (cm) <= 6.05\ngini = 0.04\nsamples = 35\nvalue = [0, 48, 1]\nclass = versicolor", fillcolor="#3de684"] ;
3 -> 4 ;
5 [label="gini = 0.0\nsamples = 21\nvalue = [0, 29, 0]\nclass = versicolor", fillcolor="#39e581"] ;
4 -> 5 ;
6 [label="petal length (cm) <= 5.3\ngini = 0.09\nsamples = 14\nvalue = [0, 19, 1]\nclass = versicolor", fillcolor="#43e688"] ;
4 -> 6 ;
7 [label="gini = 0.0\nsamples = 13\nvalue = [0, 19, 0]\nclass = versicolor", fillcolor="#39e581"] ;
6 -> 7 ;
8 [label="gini = 0.0\nsamples = 1\nvalue = [0, 0, 1]\nclass = virginica", fillcolor="#8139e5"] ;
6 -> 8 ;
9 [label="gini = 0.0\nsamples = 1\nvalue = [0, 0, 1]\nclass = virginica", fillcolor="#8139e5"] ;
3 -> 9 ;
10 [label="petal length (cm) <= 4.85\ngini = 0.04\nsamples = 29\nvalue = [0, 1, 54]\nclass = virginica", fillcolor="#833de5"] ;
2 -> 10 ;
11 [label="sepal width (cm) <= 3.1\ngini = 0.38\nsamples = 2\nvalue = [0, 1, 3]\nclass = virginica", fillcolor="#ab7bee"] ;
10 -> 11 ;
12 [label="gini = 0.0\nsamples = 1\nvalue = [0, 0, 3]\nclass = virginica", fillcolor="#8139e5"] ;
11 -> 12 ;
13 [label="gini = 0.0\nsamples = 1\nvalue = [0, 1, 0]\nclass = versicolor", fillcolor="#39e581"] ;
11 -> 13 ;
14 [label="gini = 0.0\nsamples = 27\nvalue = [0, 0, 51]\nclass = virginica", fillcolor="#8139e5"] ;
10 -> 14 ;
}